<?xml version="1.0"?>
<opencv_storage>
<!-- Created using Computer Vision Toolbox(tm) for MATLAB(R) -->
<!-- Version 9.7.0.1296695 (R2019b) Update 4 -->
<!-- Compatible with OpenCV 3.4 -->
<cascade>
  <stageType>BOOST</stageType>
  <featureType>HOG</featureType>
  <height>74</height>
  <width>32</width>
  <stageParams>
    <boostType>GAB</boostType>
    <minHitRate>9.9500000476837158e-01</minHitRate>
    <maxFalseAlarm>1.0000000149011612e-01</maxFalseAlarm>
    <weightTrimRate>9.4999999999999996e-01</weightTrimRate>
    <maxDepth>1</maxDepth>
    <maxWeakCount>100</maxWeakCount></stageParams>
  <featureParams>
    <maxCatCount>0</maxCatCount>
    <featSize>36</featSize></featureParams>
  <stageNum>5</stageNum>
  <stages>
    <!-- stage 0 -->
    <_>
      <maxWeakCount>9</maxWeakCount>
      <stageThreshold>-1.3155754804611206e+00</stageThreshold>
      <weakClassifiers>
        <_>
          <internalNodes>
            0 -1 54 5.0008740276098251e-02</internalNodes>
          <leafValues>
            -8.0203956365585327e-01 5.5454546213150024e-01</leafValues></_>
        <_>
          <internalNodes>
            0 -1 59 3.6871500313282013e-02</internalNodes>
          <leafValues>
            -6.4976948499679565e-01 6.3818424940109253e-01</leafValues></_>
        <_>
          <internalNodes>
            0 -1 10 4.6091824769973755e-02</internalNodes>
          <leafValues>
            -4.9957659840583801e-01 7.2975760698318481e-01</leafValues></_>
        <_>
          <internalNodes>
            0 -1 65 2.1556755527853966e-02</internalNodes>
          <leafValues>
            -6.8707388639450073e-01 4.8283341526985168e-01</leafValues></_>
        <_>
          <internalNodes>
            0 -1 71 1.1425892822444439e-02</internalNodes>
          <leafValues>
            4.5832702517509460e-01 -7.4313372373580933e-01</leafValues></_>
        <_>
          <internalNodes>
            0 -1 70 3.0755560845136642e-02</internalNodes>
          <leafValues>
            -8.1459587812423706e-01 4.3077689409255981e-01</leafValues></_>
        <_>
          <internalNodes>
            0 -1 28 1.5289826318621635e-02</internalNodes>
          <leafValues>
            -8.3424228429794312e-01 4.0812766551971436e-01</leafValues></_>
        <_>
          <internalNodes>
            0 -1 49 2.5597166270017624e-02</internalNodes>
          <leafValues>
            -6.6553705930709839e-01 3.8824144005775452e-01</leafValues></_>
        <_>
          <internalNodes>
            0 -1 8 4.7653175890445709e-02</internalNodes>
          <leafValues>
            -4.7871774435043335e-01 7.1436119079589844e-01</leafValues></_></weakClassifiers></_>
    <!-- stage 1 -->
    <_>
      <maxWeakCount>12</maxWeakCount>
      <stageThreshold>-9.1242384910583496e-01</stageThreshold>
      <weakClassifiers>
        <_>
          <internalNodes>
            0 -1 23 4.0829934179782867e-02</internalNodes>
          <leafValues>
            -7.2053462266921997e-01 3.7402886152267456e-01</leafValues></_>
        <_>
          <internalNodes>
            0 -1 51 1.9979292526841164e-02</internalNodes>
          <leafValues>
            -7.2505140304565430e-01 3.5196381807327271e-01</leafValues></_>
        <_>
          <internalNodes>
            0 -1 4 3.7943355739116669e-02</internalNodes>
          <leafValues>
            -5.3156256675720215e-01 5.3285717964172363e-01</leafValues></_>
        <_>
          <internalNodes>
            0 -1 73 1.4137316495180130e-02</internalNodes>
          <leafValues>
            4.0660661458969116e-01 -6.0426890850067139e-01</leafValues></_>
        <_>
          <internalNodes>
            0 -1 48 2.1368868649005890e-02</internalNodes>
          <leafValues>
            -7.7553021907806396e-01 3.8275876641273499e-01</leafValues></_>
        <_>
          <internalNodes>
            0 -1 46 2.3823246359825134e-02</internalNodes>
          <leafValues>
            -6.7659819126129150e-01 3.3690714836120605e-01</leafValues></_>
        <_>
          <internalNodes>
            0 -1 7 3.2836921513080597e-02</internalNodes>
          <leafValues>
            -5.8541238307952881e-01 3.6783397197723389e-01</leafValues></_>
        <_>
          <internalNodes>
            0 -1 60 2.0252522081136703e-02</internalNodes>
          <leafValues>
            -7.1504116058349609e-01 2.6632672548294067e-01</leafValues></_>
        <_>
          <internalNodes>
            0 -1 50 3.6078900098800659e-02</internalNodes>
          <leafValues>
            -7.1070885658264160e-01 2.8220582008361816e-01</leafValues></_>
        <_>
          <internalNodes>
            0 -1 11 3.0206453055143356e-02</internalNodes>
          <leafValues>
            3.2391634583473206e-01 -6.8434500694274902e-01</leafValues></_>
        <_>
          <internalNodes>
            0 -1 5 1.7557773739099503e-02</internalNodes>
          <leafValues>
            3.4946489334106445e-01 -6.2793588638305664e-01</leafValues></_>
        <_>
          <internalNodes>
            0 -1 2 2.3111835122108459e-02</internalNodes>
          <leafValues>
            -6.2455743551254272e-01 3.3436655998229980e-01</leafValues></_></weakClassifiers></_>
    <!-- stage 2 -->
    <_>
      <maxWeakCount>14</maxWeakCount>
      <stageThreshold>-6.3072949647903442e-01</stageThreshold>
      <weakClassifiers>
        <_>
          <internalNodes>
            0 -1 68 8.7563851848244667e-03</internalNodes>
          <leafValues>
            3.3256351947784424e-01 -6.7638307809829712e-01</leafValues></_>
        <_>
          <internalNodes>
            0 -1 39 7.9163666814565659e-03</internalNodes>
          <leafValues>
            4.0725928544998169e-01 -4.9970853328704834e-01</leafValues></_>
        <_>
          <internalNodes>
            0 -1 61 1.7150951549410820e-02</internalNodes>
          <leafValues>
            3.3467501401901245e-01 -5.4594784975051880e-01</leafValues></_>
        <_>
          <internalNodes>
            0 -1 52 1.9884064793586731e-02</internalNodes>
          <leafValues>
            -8.0695486068725586e-01 2.3152108490467072e-01</leafValues></_>
        <_>
          <internalNodes>
            0 -1 43 3.7804618477821350e-02</internalNodes>
          <leafValues>
            -4.6560004353523254e-01 3.9918956160545349e-01</leafValues></_>
        <_>
          <internalNodes>
            0 -1 32 1.6856778413057327e-02</internalNodes>
          <leafValues>
            -6.3971716165542603e-01 2.3879663646221161e-01</leafValues></_>
        <_>
          <internalNodes>
            0 -1 58 2.8450481593608856e-02</internalNodes>
          <leafValues>
            -6.7786145210266113e-01 1.9437439739704132e-01</leafValues></_>
        <_>
          <internalNodes>
            0 -1 11 1.9232135266065598e-02</internalNodes>
          <leafValues>
            3.6698189377784729e-01 -4.4966274499893188e-01</leafValues></_>
        <_>
          <internalNodes>
            0 -1 41 2.0947953686118126e-02</internalNodes>
          <leafValues>
            -5.8430403470993042e-01 2.7327850461006165e-01</leafValues></_>
        <_>
          <internalNodes>
            0 -1 15 3.3338412642478943e-02</internalNodes>
          <leafValues>
            -3.7427040934562683e-01 4.4752717018127441e-01</leafValues></_>
        <_>
          <internalNodes>
            0 -1 31 2.8642419725656509e-02</internalNodes>
          <leafValues>
            -6.5338701009750366e-01 2.4331812560558319e-01</leafValues></_>
        <_>
          <internalNodes>
            0 -1 79 2.3664742708206177e-02</internalNodes>
          <leafValues>
            1.8457821011543274e-01 -8.3910882472991943e-01</leafValues></_>
        <_>
          <internalNodes>
            0 -1 74 1.2639133259654045e-02</internalNodes>
          <leafValues>
            -8.2511454820632935e-01 1.3557648658752441e-01</leafValues></_>
        <_>
          <internalNodes>
            0 -1 27 2.6422070339322090e-02</internalNodes>
          <leafValues>
            -5.9681761264801025e-01 2.2060821950435638e-01</leafValues></_></weakClassifiers></_>
    <!-- stage 3 -->
    <_>
      <maxWeakCount>24</maxWeakCount>
      <stageThreshold>-1.0077085494995117e+00</stageThreshold>
      <weakClassifiers>
        <_>
          <internalNodes>
            0 -1 67 8.2769710570573807e-03</internalNodes>
          <leafValues>
            1.8731988966464996e-01 -6.9322711229324341e-01</leafValues></_>
        <_>
          <internalNodes>
            0 -1 37 1.0362049564719200e-02</internalNodes>
          <leafValues>
            3.2598415017127991e-01 -4.7155240178108215e-01</leafValues></_>
        <_>
          <internalNodes>
            0 -1 45 3.1979747116565704e-02</internalNodes>
          <leafValues>
            -4.8909661173820496e-01 3.1546157598495483e-01</leafValues></_>
        <_>
          <internalNodes>
            0 -1 8 2.9908595606684685e-02</internalNodes>
          <leafValues>
            -5.1243501901626587e-01 3.0484142899513245e-01</leafValues></_>
        <_>
          <internalNodes>
            0 -1 53 3.2407611608505249e-02</internalNodes>
          <leafValues>
            -4.4401633739471436e-01 3.4206742048263550e-01</leafValues></_>
        <_>
          <internalNodes>
            0 -1 24 4.9676418304443359e-02</internalNodes>
          <leafValues>
            -3.4757396578788757e-01 4.2000073194503784e-01</leafValues></_>
        <_>
          <internalNodes>
            0 -1 75 1.2598166242241859e-02</internalNodes>
          <leafValues>
            -6.4049464464187622e-01 2.2719129920005798e-01</leafValues></_>
        <_>
          <internalNodes>
            0 -1 34 8.5323508828878403e-03</internalNodes>
          <leafValues>
            2.9414555430412292e-01 -4.5770534873008728e-01</leafValues></_>
        <_>
          <internalNodes>
            0 -1 18 2.9060505330562592e-02</internalNodes>
          <leafValues>
            -5.7314223051071167e-01 2.6368001103401184e-01</leafValues></_>
        <_>
          <internalNodes>
            0 -1 44 3.0045844614505768e-02</internalNodes>
          <leafValues>
            -5.8695477247238159e-01 1.9950652122497559e-01</leafValues></_>
        <_>
          <internalNodes>
            0 -1 40 1.8738305196166039e-02</internalNodes>
          <leafValues>
            -6.5291100740432739e-01 1.5090763568878174e-01</leafValues></_>
        <_>
          <internalNodes>
            0 -1 72 2.0448382943868637e-02</internalNodes>
          <leafValues>
            1.6733974218368530e-01 -6.8387806415557861e-01</leafValues></_>
        <_>
          <internalNodes>
            0 -1 56 1.3250363059341908e-02</internalNodes>
          <leafValues>
            -9.1067963838577271e-01 1.1261539906263351e-01</leafValues></_>
        <_>
          <internalNodes>
            0 -1 26 2.3341387510299683e-02</internalNodes>
          <leafValues>
            1.7701856791973114e-01 -5.3689050674438477e-01</leafValues></_>
        <_>
          <internalNodes>
            0 -1 5 1.0871544480323792e-02</internalNodes>
          <leafValues>
            2.8422540426254272e-01 -3.9648109674453735e-01</leafValues></_>
        <_>
          <internalNodes>
            0 -1 63 2.3844165727496147e-02</internalNodes>
          <leafValues>
            -6.8229001760482788e-01 1.6848328709602356e-01</leafValues></_>
        <_>
          <internalNodes>
            0 -1 29 1.2338245287537575e-02</internalNodes>
          <leafValues>
            -5.8616435527801514e-01 1.6475938260555267e-01</leafValues></_>
        <_>
          <internalNodes>
            0 -1 6 9.4956159591674805e-03</internalNodes>
          <leafValues>
            -6.2260729074478149e-01 1.6478167474269867e-01</leafValues></_>
        <_>
          <internalNodes>
            0 -1 1 2.4070411920547485e-02</internalNodes>
          <leafValues>
            -4.1584503650665283e-01 2.7872654795646667e-01</leafValues></_>
        <_>
          <internalNodes>
            0 -1 66 1.0340041480958462e-02</internalNodes>
          <leafValues>
            4.1285032033920288e-01 -3.0123531818389893e-01</leafValues></_>
        <_>
          <internalNodes>
            0 -1 22 1.6968876123428345e-02</internalNodes>
          <leafValues>
            -6.5343534946441650e-01 2.2111989557743073e-01</leafValues></_>
        <_>
          <internalNodes>
            0 -1 62 1.8617089837789536e-02</internalNodes>
          <leafValues>
            1.7186631262302399e-01 -5.9063357114791870e-01</leafValues></_>
        <_>
          <internalNodes>
            0 -1 0 1.6160160303115845e-02</internalNodes>
          <leafValues>
            2.9158306121826172e-01 -3.8660627603530884e-01</leafValues></_>
        <_>
          <internalNodes>
            0 -1 14 2.9274489730596542e-02</internalNodes>
          <leafValues>
            -3.3775061368942261e-01 3.5631474852561951e-01</leafValues></_></weakClassifiers></_>
    <!-- stage 4 -->
    <_>
      <maxWeakCount>26</maxWeakCount>
      <stageThreshold>-4.3299356102943420e-01</stageThreshold>
      <weakClassifiers>
        <_>
          <internalNodes>
            0 -1 25 2.5050705298781395e-02</internalNodes>
          <leafValues>
            -4.4871795177459717e-01 4.3826580047607422e-01</leafValues></_>
        <_>
          <internalNodes>
            0 -1 36 4.6892322599887848e-02</internalNodes>
          <leafValues>
            -2.7819409966468811e-01 5.0713938474655151e-01</leafValues></_>
        <_>
          <internalNodes>
            0 -1 33 1.1786696501076221e-02</internalNodes>
          <leafValues>
            2.3695421218872070e-01 -5.5339711904525757e-01</leafValues></_>
        <_>
          <internalNodes>
            0 -1 20 1.4505574479699135e-02</internalNodes>
          <leafValues>
            -5.5101287364959717e-01 2.2477270662784576e-01</leafValues></_>
        <_>
          <internalNodes>
            0 -1 30 4.1417307220399380e-03</internalNodes>
          <leafValues>
            -6.1772143840789795e-01 1.6590593755245209e-01</leafValues></_>
        <_>
          <internalNodes>
            0 -1 76 1.9836965948343277e-02</internalNodes>
          <leafValues>
            1.7854669690132141e-01 -6.4905840158462524e-01</leafValues></_>
        <_>
          <internalNodes>
            0 -1 55 1.7306879162788391e-02</internalNodes>
          <leafValues>
            -7.9240942001342773e-01 1.3708692789077759e-01</leafValues></_>
        <_>
          <internalNodes>
            0 -1 78 1.3981020078063011e-02</internalNodes>
          <leafValues>
            1.9992354512214661e-01 -4.8479890823364258e-01</leafValues></_>
        <_>
          <internalNodes>
            0 -1 57 1.7037056386470795e-02</internalNodes>
          <leafValues>
            3.1354743242263794e-01 -3.8793468475341797e-01</leafValues></_>
        <_>
          <internalNodes>
            0 -1 77 9.6121989190578461e-03</internalNodes>
          <leafValues>
            -7.1902036666870117e-01 1.3471525907516479e-01</leafValues></_>
        <_>
          <internalNodes>
            0 -1 9 3.4277148544788361e-02</internalNodes>
          <leafValues>
            -3.0186948180198669e-01 3.5521936416625977e-01</leafValues></_>
        <_>
          <internalNodes>
            0 -1 12 1.8254581838846207e-02</internalNodes>
          <leafValues>
            -6.9425398111343384e-01 1.5628512203693390e-01</leafValues></_>
        <_>
          <internalNodes>
            0 -1 13 8.6650084704160690e-03</internalNodes>
          <leafValues>
            -8.5840690135955811e-01 9.2869162559509277e-02</leafValues></_>
        <_>
          <internalNodes>
            0 -1 19 3.2397300004959106e-02</internalNodes>
          <leafValues>
            -3.7029704451560974e-01 2.8559887409210205e-01</leafValues></_>
        <_>
          <internalNodes>
            0 -1 64 1.3899603858590126e-02</internalNodes>
          <leafValues>
            -5.9551173448562622e-01 1.8964855372905731e-01</leafValues></_>
        <_>
          <internalNodes>
            0 -1 38 7.0685599930584431e-03</internalNodes>
          <leafValues>
            5.2780812978744507e-01 -2.4503780901432037e-01</leafValues></_>
        <_>
          <internalNodes>
            0 -1 47 2.8171198442578316e-02</internalNodes>
          <leafValues>
            -3.7940227985382080e-01 3.1134164333343506e-01</leafValues></_>
        <_>
          <internalNodes>
            0 -1 69 1.9717579707503319e-02</internalNodes>
          <leafValues>
            1.8149180710315704e-01 -7.0742315053939819e-01</leafValues></_>
        <_>
          <internalNodes>
            0 -1 21 8.8301701471209526e-03</internalNodes>
          <leafValues>
            -7.4961262941360474e-01 1.0246297717094421e-01</leafValues></_>
        <_>
          <internalNodes>
            0 -1 35 1.0818969458341599e-02</internalNodes>
          <leafValues>
            5.0378715991973877e-01 -2.3019309341907501e-01</leafValues></_>
        <_>
          <internalNodes>
            0 -1 16 6.0368373990058899e-02</internalNodes>
          <leafValues>
            -1.6507636010646820e-01 6.1759251356124878e-01</leafValues></_>
        <_>
          <internalNodes>
            0 -1 7 2.5719784200191498e-02</internalNodes>
          <leafValues>
            -5.5216026306152344e-01 1.9442127645015717e-01</leafValues></_>
        <_>
          <internalNodes>
            0 -1 17 5.1466733217239380e-02</internalNodes>
          <leafValues>
            -3.9894503355026245e-01 3.1198546290397644e-01</leafValues></_>
        <_>
          <internalNodes>
            0 -1 42 2.9504932463169098e-02</internalNodes>
          <leafValues>
            -3.9952102303504944e-01 2.9540953040122986e-01</leafValues></_>
        <_>
          <internalNodes>
            0 -1 3 3.2703474164009094e-02</internalNodes>
          <leafValues>
            -2.1302902698516846e-01 5.0466567277908325e-01</leafValues></_>
        <_>
          <internalNodes>
            0 -1 23 1.6090828925371170e-02</internalNodes>
          <leafValues>
            -7.8674840927124023e-01 1.6082742810249329e-01</leafValues></_></weakClassifiers></_></stages>
  <features>
    <_>
      <rect>
        0 4 8 8 1</rect></_>
    <_>
      <rect>
        0 4 8 8 10</rect></_>
    <_>
      <rect>
        0 12 8 8 18</rect></_>
    <_>
      <rect>
        0 48 8 8 3</rect></_>
    <_>
      <rect>
        0 52 8 8 34</rect></_>
    <_>
      <rect>
        0 56 8 8 26</rect></_>
    <_>
      <rect>
        0 56 8 8 28</rect></_>
    <_>
      <rect>
        0 56 8 8 31</rect></_>
    <_>
      <rect>
        4 12 8 8 1</rect></_>
    <_>
      <rect>
        4 12 8 8 2</rect></_>
    <_>
      <rect>
        4 16 8 8 0</rect></_>
    <_>
      <rect>
        4 32 8 8 17</rect></_>
    <_>
      <rect>
        4 36 8 8 8</rect></_>
    <_>
      <rect>
        4 56 8 8 30</rect></_>
    <_>
      <rect>
        8 8 8 8 7</rect></_>
    <_>
      <rect>
        8 12 8 8 2</rect></_>
    <_>
      <rect>
        8 12 8 8 14</rect></_>
    <_>
      <rect>
        8 40 8 8 26</rect></_>
    <_>
      <rect>
        8 44 8 8 8</rect></_>
    <_>
      <rect>
        8 48 8 8 27</rect></_>
    <_>
      <rect>
        12 4 8 8 0</rect></_>
    <_>
      <rect>
        12 4 8 8 1</rect></_>
    <_>
      <rect>
        12 12 8 8 14</rect></_>
    <_>
      <rect>
        12 12 8 8 15</rect></_>
    <_>
      <rect>
        12 16 8 8 16</rect></_>
    <_>
      <rect>
        12 20 8 8 16</rect></_>
    <_>
      <rect>
        12 24 8 8 18</rect></_>
    <_>
      <rect>
        12 52 8 8 25</rect></_>
    <_>
      <rect>
        12 56 8 8 21</rect></_>
    <_>
      <rect>
        12 56 8 8 23</rect></_>
    <_>
      <rect>
        16 44 8 8 30</rect></_>
    <_>
      <rect>
        16 56 8 8 8</rect></_>
    <_>
      <rect>
        16 56 8 8 21</rect></_>
    <_>
      <rect>
        16 56 8 8 28</rect></_>
    <_>
      <rect>
        16 56 8 8 35</rect></_>
    <_>
      <rect>
        0 0 8 16 8</rect></_>
    <_>
      <rect>
        0 0 8 16 18</rect></_>
    <_>
      <rect>
        0 32 8 16 24</rect></_>
    <_>
      <rect>
        0 32 8 16 26</rect></_>
    <_>
      <rect>
        0 40 8 16 19</rect></_>
    <_>
      <rect>
        4 0 8 16 12</rect></_>
    <_>
      <rect>
        4 0 8 16 15</rect></_>
    <_>
      <rect>
        4 12 8 16 1</rect></_>
    <_>
      <rect>
        4 16 8 16 0</rect></_>
    <_>
      <rect>
        4 20 8 16 8</rect></_>
    <_>
      <rect>
        4 20 8 16 25</rect></_>
    <_>
      <rect>
        4 32 8 16 7</rect></_>
    <_>
      <rect>
        4 32 8 16 25</rect></_>
    <_>
      <rect>
        4 36 8 16 27</rect></_>
    <_>
      <rect>
        4 36 8 16 34</rect></_>
    <_>
      <rect>
        4 36 8 16 35</rect></_>
    <_>
      <rect>
        8 0 8 16 2</rect></_>
    <_>
      <rect>
        8 4 8 16 14</rect></_>
    <_>
      <rect>
        8 24 8 16 27</rect></_>
    <_>
      <rect>
        8 28 8 16 26</rect></_>
    <_>
      <rect>
        8 28 8 16 27</rect></_>
    <_>
      <rect>
        8 40 8 16 25</rect></_>
    <_>
      <rect>
        12 8 8 16 18</rect></_>
    <_>
      <rect>
        12 12 8 16 35</rect></_>
    <_>
      <rect>
        12 16 8 16 16</rect></_>
    <_>
      <rect>
        12 28 8 16 9</rect></_>
    <_>
      <rect>
        12 28 8 16 22</rect></_>
    <_>
      <rect>
        12 28 8 16 23</rect></_>
    <_>
      <rect>
        12 32 8 16 17</rect></_>
    <_>
      <rect>
        12 40 8 16 24</rect></_>
    <_>
      <rect>
        16 0 8 16 5</rect></_>
    <_>
      <rect>
        16 24 8 16 34</rect></_>
    <_>
      <rect>
        16 32 8 16 27</rect></_>
    <_>
      <rect>
        16 32 8 16 35</rect></_>
    <_>
      <rect>
        16 36 8 16 28</rect></_>
    <_>
      <rect>
        16 40 8 16 8</rect></_>
    <_>
      <rect>
        16 40 8 16 28</rect></_>
    <_>
      <rect>
        16 40 8 16 29</rect></_>
    <_>
      <rect>
        16 40 8 16 35</rect></_>
    <_>
      <rect>
        0 56 16 8 21</rect></_>
    <_>
      <rect>
        0 28 16 16 3</rect></_>
    <_>
      <rect>
        0 28 16 16 29</rect></_>
    <_>
      <rect>
        0 32 16 16 12</rect></_>
    <_>
      <rect>
        0 32 16 16 20</rect></_>
    <_>
      <rect>
        0 0 16 32 20</rect></_></features></cascade>
</opencv_storage>
